{"w2":{"NDArray":{"v":1,"dim":[1,30],"data":[0.11278811,0.18367624,0.2203089,0.4921134,0.55436933,0.08950643,-0.053912055,-0.29805654,-0.20076093,0.061496254,-0.081680976,0.0076722223,0.027188001,0.50908774,-0.706665,-0.14314772,0.22604018,0.61051816,-0.22222981,-1.222867,-0.2674373,-0.033350192,0.23774454,-0.08054085,0.12755348,0.5363222,-0.026136175,0.62540126,0.06529215,0.42825833]}},"b2":{"NDArray":{"v":1,"dim":[1,1],"data":[0.5442483]}},"b1":{"NDArray":{"v":1,"dim":[30,1],"data":[0.4954431,0.4954431,0.4954431,0.4954431,0.4954431,0.4954431,0.4954431,0.4954431,0.4954431,0.4954431,0.4954431,0.4954431,0.4954431,0.4954431,0.4954431,0.4954431,0.4954431,0.4954431,0.4954431,0.4954431,0.4954431,0.4954431,0.4954431,0.4954431,0.4954431,0.4954431,0.4954431,0.4954431,0.4954431,0.4954431]}},"w1":{"NDArray":{"v":1,"dim":[30,4],"data":[0.30743176,0.03433569,-0.036897272,0.2813874,-0.44898883,-0.32864174,0.3719957,-0.42379662,0.30589318,0.112158865,-0.28243786,0.36335415,-0.38655615,0.24725345,-0.36529598,-0.4331392,-0.027927674,-0.049150024,-0.4989045,-0.16487324,-0.0026254447,-0.4286812,-0.4061127,0.113712974,-0.15330184,-0.37337416,0.42449132,0.016484814,0.40206966,-0.108111076,0.47647092,0.082267456,0.35734352,0.07336135,0.239231,0.31680626,-0.28463703,-0.33826053,0.44879764,-0.1759482,0.2355162,-0.33365533,-0.103540964,-0.08590878,0.09745965,-0.06279827,0.04839021,0.10360266,-0.080227114,0.16560888,0.09426349,0.3839185,-0.37517604,-0.27306047,0.11934957,0.54246217,0.48834652,0.3397399,0.5123198,-0.3094214,-0.12663716,0.19794221,0.4714398,-0.38693467,0.06050249,-0.4284126,-0.4590807,0.32883248,-0.72885615,-0.37864116,-0.051251017,0.10622026,0.53805095,0.46529788,-0.18616438,0.0085395,0.8678095,0.586772,0.83516294,-0.41553476,0.10813324,0.5240231,0.14270023,-0.3181561,0.30486497,-0.5092628,0.17455998,0.033294927,-0.47831464,0.43975827,-0.16564971,-0.21551657,0.53033346,-0.4944185,-0.028374437,0.42750967,0.012505319,-0.2840154,-0.1835927,-0.48533022,0.41835812,-0.22363412,-0.6540902,-0.26322404,-0.43339157,0.5315142,0.13392565,0.29440638,-0.8243554,-0.12562686,0.11565943,-0.34166637,0.056741323,0.45106828,-0.37960356,-0.039007418,-0.56246096,0.00964553,0.2632956,0.51263803]}}}