{"w2":{"NDArray":{"v":1,"dim":[1,30],"data":[-0.74870455,-0.750863,1.0743333,1.1589315,1.1650361,0.65972424,1.093571,-0.56695145,-0.26513278,-0.48328438,-0.40716696,-0.85865015,1.0657892,-0.37021986,-0.60509866,1.1024246,-0.52948356,1.0458928,-0.32722443,-0.70084685,1.1308267,-0.5321709,-0.4776892,-0.61442757,-0.031408995,1.0181617,-0.5579546,1.0244492,1.0198499,-0.73914844]}},"b1":{"NDArray":{"v":1,"dim":[30,1],"data":[0.8555737,0.8555737,0.8555737,0.8555737,0.8555737,0.8555737,0.8555737,0.8555737,0.8555737,0.8555737,0.8555737,0.8555737,0.8555737,0.8555737,0.8555737,0.8555737,0.8555737,0.8555737,0.8555737,0.8555737,0.8555737,0.8555737,0.8555737,0.8555737,0.8555737,0.8555737,0.8555737,0.8555737,0.8555737,0.8555737]}},"w1":{"NDArray":{"v":1,"dim":[30,6],"data":[1.2568724,0.0813105,-0.14003465,1.3174765,-0.35315108,1.010339,1.4918779,-0.6672629,-0.23572789,1.4798045,-0.14408828,1.2278887,-2.1074815,0.85298353,0.18799457,-1.9392471,0.31078187,-1.5031931,-1.2913123,0.931372,0.444728,-1.7683978,0.39725718,-1.5335754,-1.824244,0.562644,0.43261936,-2.2313,0.8623832,-1.8514436,-1.9881406,0.37358072,0.60101324,-2.28052,-0.06782216,-1.922601,-1.3113823,1.1118599,0.31516314,-1.9464723,0.5938391,-1.8730538,0.9244501,-0.33413613,-0.0109056905,1.1460073,-0.35242704,0.8554005,1.2215497,-0.20978975,0.44446096,0.86441225,0.0033491415,0.9640663,1.0183382,-0.5234814,0.36847913,1.472465,-0.35857156,1.0712541,1.1195525,-0.6820502,-0.03714788,1.1385098,-0.30579388,1.3409723,1.5242363,0.055690717,-0.23360826,1.1527826,-0.5461701,1.1880901,-1.7384824,0.80923176,0.6123269,-1.4920899,0.6359797,-1.2600241,0.85260755,-0.11606543,-0.06372638,1.744011,0.093244776,1.1244688,0.88936216,0.16532116,-0.0720654,1.6008266,-0.54343593,1.129716,-1.6438137,1.2007228,0.38762525,-2.1107721,0.60161906,-1.9658302,1.2375996,-0.4255993,-0.08392512,1.0690353,-0.49225983,1.5182543,-1.701028,0.40471074,0.5304357,-1.3933223,0.87871987,-1.7759249,1.2815169,-0.14496899,0.4777897,1.2528626,-0.3626461,1.5064291,1.5425556,-0.40073523,-0.29867813,1.5595489,-0.02080675,1.1507156,-1.8769115,1.1276789,0.08798238,-1.793974,0.14104316,-1.4040632,1.4588349,-0.4833038,-0.15910548,0.9767741,-0.10832423,0.98199266,1.557218,-0.02300309,-0.0066075553,1.2540126,-0.21916595,1.5436497,1.2989154,-0.0045132083,0.140935,1.3979956,-0.6179445,0.96756965,0.53448063,0.2270741,0.82983196,0.65562737,0.03985507,0.16771738,-1.80143,0.42974734,0.6285789,-1.9714775,0.78577363,-1.4007466,1.4693415,-0.22650346,-0.014675025,1.6988453,-0.19607417,1.628873,-1.1842875,0.5856533,0.22282217,-1.5721378,0.7391326,-1.3758487,-2.5668702,0.97359765,0.27749828,-1.8111043,0.041867547,-1.7123712,1.3394953,-0.33394703,-0.18428531,1.6396836,-0.3216071,1.4892383]}},"b2":{"NDArray":{"v":1,"dim":[1,1],"data":[0.05126215]}}}